<?xml version="1.0"?>
<opencv_storage>
<stage3>
  <maxWeakCount>9</maxWeakCount>
  <stageThreshold>-1.4715418815612793e+00</stageThreshold>
  <weakClassifiers>
    <_>
      <internalNodes>
        0 -1 73458 9.8557043820619583e-03</internalNodes>
      <leafValues>
        -4.1874998807907104e-01 7.4444442987442017e-01</leafValues></_>
    <_>
      <internalNodes>
        0 -1 8636 -6.6236138343811035e-02</internalNodes>
      <leafValues>
        6.9073361158370972e-01 -3.7996560335159302e-01</leafValues></_>
    <_>
      <internalNodes>
        0 -1 7334 9.8851695656776428e-03</internalNodes>
      <leafValues>
        -3.0103930830955505e-01 7.0142328739166260e-01</leafValues></_>
    <_>
      <internalNodes>
        0 -1 68694 1.1575309559702873e-02</internalNodes>
      <leafValues>
        -2.1319556236267090e-01 8.8940435647964478e-01</leafValues></_>
    <_>
      <internalNodes>
        0 -1 34260 2.8710034675896168e-03</internalNodes>
      <leafValues>
        -2.3425550758838654e-01 7.1942907571792603e-01</leafValues></_>
    <_>
      <internalNodes>
        0 -1 34257 1.8840766279026866e-03</internalNodes>
      <leafValues>
        -2.6088458299636841e-01 6.3281697034835815e-01</leafValues></_>
    <_>
      <internalNodes>
        0 -1 27912 -2.9331538826227188e-03</internalNodes>
      <leafValues>
        8.4794223308563232e-01 -2.0439386367797852e-01</leafValues></_>
    <_>
      <internalNodes>
        0 -1 78190 4.0509407408535480e-03</internalNodes>
      <leafValues>
        -3.6910593509674072e-01 5.2442455291748047e-01</leafValues></_>
    <_>
      <internalNodes>
        0 -1 7467 1.7881313338875771e-02</internalNodes>
      <leafValues>
        -1.9255150854587555e-01 8.7530571222305298e-01</leafValues></_></weakClassifiers></stage3>
</opencv_storage>
